w
-5.22864309135
-7.79232873952
-7.26228559331
-5.67021907912
-3.02675772418
-2.93794217847
-2.94823582779
-2.86045907763
-0.008521792376
-0.00342608269984
0.0506866322649
-0.0228436439463
-3.49733971221
-1.80934447303
0.0264631359636
0.0356828446855
0.0378217847164
0.0248523413091
0.0673388968468
0.0392239302624
-0.344046051698
-7.22709259593
-0.490861199988
0.100434154957
0.0475240618231
0.0600923675145
0.00476997974939
0.0353123204657
0.0411852198062
-0.437099174208
-6.84551195511
-0.168558413351
-0.109446845119
0.00946651195503
-0.0313295706023
-0.00784718743904
0.0349072477609
0.0113263177511
-1.75912625516
-3.81816929827
-1.15599111749
-0.0936591709067
-0.0341520636392
-0.0375116620122
0.0410082469632
0.182876193245
-0.277585803682
-1.65174234666
-0.448987815583
-1.13412294198
-0.122565884342
-0.08856801849
-0.191593255238
-0.128031410943
-0.404968844684
-0.419104007206
-0.128103618903
-0.144374184427
-1.19015925395
-0.39484578373
-0.352156977711
-0.33991333239
-0.112792687561
-0.285889989112
-0.100460868227
-0.0215033293226
-0.0512438207413
-1.03870247123
-1.53226159528
-0.378027164942
0.281015588559
-0.019275416437
-0.0383774390408
-0.24807059327
-0.194753907125
-0.476279308899
-0.433365829562
0.0406351289507
-0.199126588399
3.05053455334e-06
0.0
0.0
0.0
0.0
0.0439998054167
-0.100166104829
0.000133127690254
0.0
0.0
0.0
0.0
0.0511369932789
-0.085062733928
-0.000563600740713
0.0
0.0
0.0
0.0
0.0385190978765
-0.199432843412
0.0
0.0
0.0
0.0
0.0
0.0631625121216
-0.142866280611
0.0
0.0
0.0
0.0
0.0
0.0289402778467
-0.0394785895742
0.0
0.0
0.0
0.0
0.0
0.0429190453304
-0.0339760949868
0.0
0.0
0.0
0.0
0.0
0.023596097686
-0.151585996346
0.0
0.0
0.0
0.0
0.0
-0.0187368144412
0.001075934156
0.00708876211468
0.0382531399587
0.0265870281723
0.0190123662339
-0.00377309354187
0.0105812115085
0.0101742753268
0.0365397609986
0.0506145546045
-0.00517832043195
-0.00904365994463
0.00722954131958
0.00339555240381
0.0368161327499
0.0444667270985
0.0130556880406
-0.00805245267783
0.00868982622955
0.00522146547088
0.0377802379511
0.0103098206168
0.000874721384433
-0.0170478405014
0.00904933079287
0.0204285900361
0.0104260426781
-0.0013279583423
0.0014522320855
0.00138935506958
0.0230332823982
0.00217539044141
0.0192847613213
0.0083880860479
0.0229449578262
0.00498808695909
0.0385461357955
0.00461556138205
0.0169381597631
-0.000387610283888
0.00858531937375
-0.00825186811562
0.00872369068538
1.99636455979e-06
0.0140834571406
-0.0136010005
0.00416527648568
16.9269261311
0.0
0.0793617753743
0.0298239434107
0.0735841899943
81.9199160171
31.2984981413
-0.176093612475
-0.217610312503
-0.0207433973064
-0.596945281054
2.89197734005
-2.29324315018
a
-5.95247978892
-7.46738990962
-7.00576720376
-6.9565742148
-3.47172860464
-1.97816817866
-2.35926989338
-3.07256528466
-0.026770444379
0.0173093005909
0.0259971612229
-0.190402916644
-5.17453820798
-1.18350337164
0.581188296642
-0.00175960672662
-0.0536382300441
0.0263081813554
-0.0210621856928
-0.00148149824405
-1.08126395113
-6.83429995489
0.441020599073
0.0570271299453
-0.0530869396747
-0.043708582306
0.00293835077142
-0.00705175111483
-0.128150087783
-1.21280662831
-4.99579135914
-0.568110206204
-0.22750479014
-0.0597190996189
-0.0245442805072
0.0050081411656
-0.123889749821
-0.313333925577
-2.03674646691
-4.17584404339
-1.28933153876
-0.1796712534
-0.0571746359539
0.0219291228917
-0.00529514423459
-0.106718127783
-0.335940808708
-1.51952621869
-0.261394070393
-0.779723306892
-0.184822723651
-0.000740485446435
-0.0705842696175
-0.144146535182
-0.306258931095
-0.230497856384
-0.0582066199897
-0.0629114601611
-1.31740007334
-0.376966758515
-0.234061855065
0.0509944471569
-0.215145101593
-0.14557247188
0.0305512213785
0.0282600540939
-0.114883045364
-1.66636320213
-1.71579513827
0.0548265904273
0.333571268534
-0.0227330333312
0.0833643363134
-0.149961698108
-0.0374985447333
-0.520615553949
-0.156104318627
0.0554936076206
-0.175458233291
0.0
0.0
0.0
0.0
0.0
0.0784182750531
-0.082515549819
0.000159976917852
0.0
0.0
0.0
0.0
0.00212602725606
-0.091441260648
-9.3633623493e-05
0.0
0.0
0.0
0.0
0.0227307885965
-0.26526530046
0.0
0.0
0.0
0.0
0.0
0.0991830653288
-0.133724183268
0.0
0.0
0.0
0.0
0.0
0.0791088587725
-0.00428356914699
0.0
0.0
0.0
0.0
0.0
0.037010174476
-0.0390073646344
0.0
0.0
0.0
0.0
0.0
0.0359497934422
-0.13650882154
0.0
0.0
0.0
0.0
0.0
-0.011941013293
-0.00513784186289
-0.00586900641327
0.00946117065723
0.0133441170348
0.0120050156092
-0.00675762078701
-0.00282701194535
0.0191275842645
0.0105930800571
0.0261353161588
0.00498873099285
0.018811245297
0.0386829604801
0.0100287911704
0.0352774821053
0.0456294259357
0.0246957892797
0.0573344315167
0.165890722292
0.0102542713734
0.0798519262918
0.0716448186635
0.0388889872177
0.0255955899716
0.0491610639071
0.00170756317624
0.0376152078686
0.0348463608041
0.00704994900108
-0.00354178432312
0.00630407143586
0.0245908463585
0.0212227951261
0.00391367242762
0.0547637114369
-0.0153514474089
0.000791530683336
0.00176398724366
0.0045243285253
0.00464971118264
-0.000333070490116
-0.0203028164741
-0.00369578357239
-0.000445991990635
0.0106313641341
0.0043816163942
-0.00436116363308
16.4756957211
0.0
0.0784085855088
0.047735312783
0.0513048208676
80.6821101336
29.0851763811
-0.0161661545528
-0.822181270065
-0.0461804718609
-0.222537231723
0.918196920733
-5.1227717801
s
-5.20393224569
-8.99193918877
-8.2917048344
-5.25385607978
-2.71927087688
-2.19376051802
-2.09095684844
-2.63665012448
-0.0919170321855
-0.060431068146
-0.0526063318177
-0.335495116403
-4.02597611389
-0.335648735836
-0.161694048979
-0.140163798435
-0.0811998461318
-0.059554402178
-0.0651459687472
-0.12755915668
-1.44289463793
-6.04753872843
-0.886026626188
-0.282019822487
-0.147598003503
-0.0770396132534
-0.00421501748483
-0.0669811887944
-0.361954386783
-0.901006706982
-5.46605191533
-1.26685800227
-0.432395589177
-0.0858249071513
-0.0421788014307
-0.0388863292722
-0.230004720362
-0.0546543402439
-0.348019397114
-4.02189199503
-1.07763032445
-0.267703196209
-0.0654646709867
0.0386790007473
0.0315235390138
-0.142610415891
0.326512000109
-1.56257680922
-0.301800379126
-1.70020895852
-0.157152245666
0.0410825385226
-0.0671039174038
-0.0498562614475
0.156546058448
-0.115267352835
-0.0602042184221
-0.14895049997
-1.8486002087
-0.0514748027797
-0.0127587227425
0.322817075122
-0.115777883966
-0.176007586975
-0.0151378213742
-0.0397875131648
-0.199670690313
-1.05429060594
-1.61781855219
0.343349846026
-0.033175531485
-0.0201192560415
-0.222021832424
-0.0523305991527
-0.0314711979766
-0.208621300815
-0.165262899955
0.0693546142378
-0.19452136941
0.0
0.0
0.0
0.0
0.0
0.0289580474776
-0.132212706219
3.13314937372e-05
0.0
0.0
0.0
0.0
0.00598722436172
-0.141011320224
-0.00044781820221
0.0
0.0
0.0
0.0
0.0639317263432
-0.174261857733
0.0
0.0
0.0
0.0
0.0
0.0752977795688
-0.137568521179
0.0
0.0
0.0
0.0
0.0
0.038204048502
-0.0722612341556
0.0
0.0
0.0
0.0
0.0
0.0316548166598
-0.0610750642695
0.0
0.0
0.0
0.0
0.0
0.0440899372258
-0.139470799986
0.0
0.0
0.0
0.0
0.0
-0.00480014880497
0.0155745943917
-0.00209542195737
0.0397927402994
0.0307862395988
0.0173289532928
0.0414607592754
0.11034180653
0.0316609891575
0.0546117412519
0.0658443860868
0.0602150106751
0.0289461724867
0.145307805077
8.74611171131e-05
0.0732778219826
0.0696950504962
0.0366682380321
-0.0057119672596
0.060149144834
0.0235947853387
0.0396625875308
0.019296740896
-0.00083935182551
-0.0233448805752
0.00483243916208
0.0204970327013
0.0135942150581
0.00520694538745
0.00571757511399
-0.0191494630993
5.55737503982e-05
0.0151410656036
0.017150149494
-0.00176999171655
0.0416741699416
-0.0173538387096
-0.00369531978688
-0.000432897373796
0.00269480392815
-0.00678549321876
-0.00374687654519
-0.0154752397418
-0.00387704974121
0.00212274949324
0.00871105329748
-0.00072766825036
-0.000725317362983
16.9568038541
0.0
0.0683714063715
0.0386347971613
0.0641949957759
81.4366868051
31.2560124209
-0.2275524404
-0.298991631732
-0.41245838617
0.0220563118748
-4.74485894743
-2.90349031052
d
-7.18193410364
-7.18779637952
-6.93902718526
-5.83644017767
-3.37224917071
-1.83373893665
-1.82572711077
-3.72589856408
0.00898112739776
-0.00533246860724
-0.0588027265778
-0.29956523192
-4.06259923978
-2.10950347619
-0.528596561857
-0.126515526115
-0.043724294629
-0.00915987143079
-0.0761474025988
-0.0815633691323
-0.561519404941
-4.92620323026
-1.35835625451
-0.131122552012
-0.0835608827575
0.00446261673335
-0.0165957431413
-0.0827001333323
-0.0668117769839
0.818541395446
-6.41307383173
-1.0992888295
-0.350792193099
0.0399035737846
0.0718708823955
-0.0526082581827
0.0335245850044
0.636455127325
-1.08033091391
-5.13446298099
-2.03691198893
-0.072715619207
0.0441198139162
0.110082886745
-0.0457190032741
0.293094800026
0.139970218799
-1.80417027879
-0.474411405537
-1.01169310378
0.0334542127757
0.00145427989965
-0.0905348326485
-0.0978041670161
0.0903700042592
-0.28457392461
-0.0782364621786
-0.137145825075
-0.725800439864
-0.25762622207
-0.179826741716
-0.418884632828
-0.0427156692115
0.0145088821726
-0.0702963871242
-0.0427122865555
-0.153111458043
-1.29723081803
-1.58301831658
-0.497550016688
-0.114977680691
0.0329983996286
0.0991904083403
-0.0619928109562
-0.00675055082174
-0.0970518751884
-0.523052732235
0.0486499729822
-0.284448001479
0.0
0.0
0.0
0.0
0.0
-0.00132666902845
-0.0495524831984
-7.62632643447e-06
0.0
0.0
0.0
0.0
0.101516049626
-0.0882664273316
1.196624819e-05
0.0
0.0
0.0
0.0
0.0696826224729
-0.189292789106
0.0
0.0
0.0
0.0
0.0
0.033993483242
-0.179267120651
0.0
0.0
0.0
0.0
0.0
0.0441741449233
-0.0689679474271
0.0
0.0
0.0
0.0
0.0
0.0974433308532
-0.0524422189294
0.0
0.0
0.0
0.0
0.0
0.0982833027537
-0.162846358082
0.0
0.0
0.0
0.0
0.0
0.0578880044641
0.220360269555
0.00813217059984
0.0831346098553
0.0839380815646
0.0711930739301
0.0235631709921
0.0513723813154
0.060866143919
0.0378299756931
0.0464287197861
0.0386485049622
0.00172479461357
0.00512376399356
-0.000214202556747
0.0178448863584
0.0221802236455
-0.011416858794
-0.013658603663
-0.00143607308039
0.00659240215199
0.0102724631138
0.00646202815292
-0.0160705050144
-0.016058861087
0.00326274885126
0.0330234186692
0.00200546433277
0.0021786440272
-0.00571281978686
-0.0148694967606
-0.00046667067553
0.0115276747406
0.0127773417887
0.00167034188744
0.0279166455904
-0.00256988976663
0.00899690086023
0.00828841059754
0.0183524899233
-0.00181166309384
0.0104548228873
0.0375403726672
0.107558397277
0.00339489238246
0.0535113931935
0.034447283417
0.0135874014836
16.4927936428
0.0
0.0904162804777
0.0170719504053
0.0568497399222
81.3834080448
30.4989535618
-0.870729540789
-0.0239688735077
-0.0729205329257
-0.185365799562
0.677717508706
-5.48035238198
0
-5.28607760531
-7.39062754455
-6.75162072566
-5.18650322547
-2.11756178766
-1.22385803191
-1.31317853303
-2.3298097758
-0.0193446301149
0.0373259192434
0.00960202427197
-0.111626725637
-4.00082200078
-1.19312908423
-0.0212635143732
0.013180406308
-0.0159037686274
0.00640663747808
0.0331364987386
-0.0184635934575
-0.647939066514
-6.29716676749
-0.422493545755
-0.0282039389293
-0.014080899484
0.00625789276469
0.0161526382082
-0.00304958402283
-0.0358162623654
-0.488235138573
-5.70397719445
-0.528872177736
-0.163899173714
-0.00287439046875
0.0345849286525
-0.01611363087
-0.00780049545201
-0.067351279172
-1.23227126703
-3.73077791742
-0.893557998364
-0.0689264378233
0.0203186746761
-0.0452438161464
0.0141152811241
-0.0080229403294
-0.0958448737589
-1.04039967704
-0.226775556084
-0.455679239508
-0.00717524705776
-0.0151838685354
-0.0860819007461
-0.0662309844026
-0.119559263169
-0.24717197241
-0.0194367993159
-0.0260074264407
-0.545841520054
-0.127488254789
-0.158223068509
-0.184060661988
-0.123277084687
-0.128843717248
-0.0227900009069
0.0223812070846
-0.0468245288751
-1.01356637505
-1.14786917332
-0.0908968459065
-0.050946265091
0.0207022062603
-0.0144881199943
-0.205797525385
-0.152619529974
-0.354070679308
-0.308705734402
0.0483678434941
-0.162159311166
0.0
0.0
0.0
0.0
0.0
0.0221933148199
-0.116879198466
0.00026527220451
0.0
0.0
0.0
0.0
0.0503153060633
-0.118355545984
0.000271891440215
0.0
0.0
0.0
0.0
0.0601367664817
-0.142611794264
0.0
0.0
0.0
0.0
0.0
0.0672639775694
-0.0934277555445
0.0
0.0
0.0
0.0
0.0
0.0415136497175
-0.0197264751458
0.0
0.0
0.0
0.0
0.0
0.0319064830407
-0.0462216478865
0.0
0.0
0.0
0.0
0.0
0.0513164526162
-0.108875477766
0.0
0.0
0.0
0.0
0.0
-0.00835661592423
0.0105662480829
0.00319579492855
0.0179166766254
0.0209684081788
0.0111857493284
0.00394466050645
0.0089524779512
0.00874841266953
0.0148713164776
0.0269717796023
0.00327766320692
0.00423555857485
0.00206297080407
0.00360515888077
0.0283644077247
0.023832550144
0.00161825127573
-0.00357094012733
0.0132100634151
0.00831543058791
0.0252862184794
0.0177501363323
0.00349789471784
-0.00615656614956
0.00308778606821
0.0112068801988
0.0181815631208
0.00292231609029
0.00338022838314
-0.00449989626846
-0.00179690281534
0.00826481792155
0.00911629128618
0.00471633837664
0.0108041765465
-0.00894240052618
0.00572886518895
0.00516789666295
0.00685829009165
0.0032124797902
0.00384210225629
-0.011360186314
0.00464483731122
0.00822303116266
0.0112505246774
-0.0017804356698
0.00349157002996
17.0629658198
0.0
0.0806143006185
0.0575400247422
0.0583186435173
81.7709917356
30.9438789504
-0.150218210612
-0.208874283126
0.00294505139603
-0.199488503892
1.2157743099
-1.93819388815
