w
-3.12779458368
-8.97308708283
-9.22667459912
-3.68156342672
-0.113650063515
0.231014484062
0.244192306023
-0.0755156153533
0.00377494574076
0.000477394616269
0.00050076651871
-0.0191068150303
-1.5384171744
-1.65901161533
0.0564360402763
0.0275518739292
0.0115614109543
0.00369649415774
0.00488060735822
0.00265162762432
-0.12138676804
-8.24560092552
-0.645171173957
0.0162816446015
0.00564516656322
0.00443147240109
0.00390999243745
0.0093847922078
0.016246058474
-0.576162814261
-8.54177488955
-0.148354377389
-0.0204875067109
0.00130557465059
0.000814705508346
0.00317296312457
0.0270728953025
0.000662548771649
-1.79694668149
-1.89715792587
-0.231188578973
-0.00481197119272
-0.00148511272921
-0.00188219891822
0.0186837953243
0.210940963743
0.210666371206
-0.314573331975
-0.0268963755713
-0.0267087561738
-0.0041183836627
-0.00598953608451
0.0147167746834
0.0733949189557
0.237329023438
-0.0307131815226
-0.00686005592047
-0.00441114150869
-0.0273199996594
-0.0231558257544
-0.031781286449
0.232376875481
0.0845444100894
0.020799329745
-0.00160129478894
-0.000787491105686
-0.00719978263183
-0.218174796395
-0.271763203136
0.13575618576
0.266598498122
0.021656268821
-0.0613211789448
-0.337291566867
-0.33451823298
-0.225997349365
-0.29200868925
0.0625329655158
-0.138745706622
0.0
0.0
0.0
0.0
0.0
0.033078658911
-0.200892431414
-0.000206970935182
0.0
0.0
0.0
0.0
0.043897748756
-0.203873603883
-0.000125949884351
0.0
0.0
0.0
0.0
0.0532939204948
-0.154747461438
0.0
0.0
0.0
0.0
0.0
0.0317461658
-0.0992228162061
0.0
0.0
0.0
0.0
0.0
0.0174385180518
-0.081933752706
0.0
0.0
0.0
0.0
0.0
0.00554725122787
-0.0829518320286
0.0
0.0
0.0
0.0
0.0
0.0324111244626
-0.0979984124063
0.0
0.0
0.0
0.0
0.0
-0.0219142370863
-0.000961032891478
0.00132024894592
0.0724157105157
0.0297770795582
0.00079593943669
-0.00643799003744
-0.000361341413202
0.00389650716096
0.0822013887676
0.0870549729655
-0.00652980291968
-0.0181684360304
-0.000905807035935
-0.00186958819409
0.0410383836263
0.167692854209
-0.00503534910834
-0.0139849437978
-0.00175202987157
-0.00022210061297
0.0339630914824
0.0498190555176
-0.00136262181821
-0.0146595667602
-0.000769656664387
-0.000937833209976
0.037823297559
-0.000324209168255
-0.00173083003385
-0.00387702859268
8.47523472043e-05
-8.40907641809e-05
0.016878220566
0.00239530156684
0.00198589934051
-0.00355789507108
0.000757653956493
1.06584611435e-06
0.021113307661
0.00128139244608
0.00172699854944
-0.0157014206481
-0.00149824962581
-0.00468085279169
0.0248391190546
-0.00529948757714
-0.00133100464141
-227.655656279
0.0
-0.0270838105396
-0.073946105428
-0.00334668392436
347.808456344
-44.566142037
-0.0535661331888
-0.0479153164895
5.09800004403e-05
0.0950437524194
-1.58258136481
-1.19181543322
a
-0.160258838621
-0.945888081534
-1.55014926882
-1.02075041357
-0.245518810315
-0.00689064714484
0.134843406292
0.171639081074
-0.00165901173121
0.000951811037193
0.00119958050792
-0.00991939324086
-0.210552473548
-0.00497286203577
0.0600972173272
0.00459629306233
-0.00562938582477
0.00154828924217
0.00366064266193
0.0002530565335
-0.0792567103413
-0.803775869177
-0.055011104126
-0.00767700050249
-0.00663768946536
-0.000849770515671
0.00281335854723
0.00225551070645
-0.00970767523228
-0.299286804339
-1.13235322947
-0.10638296906
-0.0247712389094
-0.00184977888191
0.000484242464089
0.00209505375156
-0.00621893207788
-0.102405516534
-0.486414494789
-0.401669748598
-0.0750597399515
-0.0056556602941
-0.000466953751305
0.00274146899398
0.00751175447094
0.020952464812
-0.0981891360585
-0.097353008537
-0.0086063552599
-0.0132513120676
-0.00148809823215
0.00358480545379
0.0319488185919
0.0503501731487
-0.0420592052083
-0.0273694735712
-0.00231421612332
0.00237873193933
-0.00852040746754
0.000466401842701
0.0220549603911
0.126123350366
0.00725668306679
-0.0126020977229
-0.00100442640753
0.00113315902978
-9.18470273372e-05
-0.0322213876328
-0.0107108651941
0.125310658329
0.0915495362241
-0.00232574624743
-0.0307550326278
-0.116606046735
-0.0214030685169
-0.123582491018
-0.0754097947342
-0.0131169216623
-0.00501929018492
0.0
0.0
0.0
0.0
0.0
-0.0166852519264
-0.0214374255928
-2.12335324135e-05
0.0
0.0
0.0
0.0
0.00998980933911
-0.0289339598349
-1.89177149682e-05
0.0
0.0
0.0
0.0
0.000316544769447
-0.0387070155381
0.0
0.0
0.0
0.0
0.0
0.00254041571013
-0.0260224388895
0.0
0.0
0.0
0.0
0.0
0.00130039480799
-0.0166822588276
0.0
0.0
0.0
0.0
0.0
-0.00700402166803
-0.00797884281235
0.0
0.0
0.0
0.0
0.0
-0.0107395215953
-0.00432772928441
0.0
0.0
0.0
0.0
0.0
-0.00458842165828
-0.00115338837065
-0.00144019002123
-0.00566301047282
-0.00419262896773
-0.00333093500941
-0.00294671962535
-0.00168335954161
0.000521039131647
-0.00432968938458
0.00806903964855
-0.00268165343471
-0.00114304758521
-0.000128311155911
-0.000406270762092
0.00644504902119
0.0124256809991
-0.000291869179206
-0.00114758330132
0.00225862915127
3.3799892305e-05
0.0222065832717
0.031523669862
0.00741432356203
-0.00236781548065
0.000222724228157
0.000271140980713
0.0160481169559
0.0111975226437
0.00498370700712
-0.0015389371959
-0.000159615102003
-0.000176379670038
0.00921804861041
-0.000835024274203
0.000621481297313
-0.00184946779501
-0.000610294440336
-0.000226472754526
0.00223360685536
-0.00216975951814
-0.000558346083317
-0.00449395237878
-0.000829590686366
-0.00152936188411
-0.00351005515467
-0.00495053963611
-0.00274948073924
48.454708259
0.0
-0.0231725359652
-0.0310766992553
-0.00487324437941
-27.349726004
-27.8615566831
-0.0136440106866
-0.0608391710544
-3.00274175439e-06
-0.0835889348096
0.903193044546
-1.13728510868
s
-0.736122932789
-1.74255528816
-1.70562728261
-0.806034296875
-0.033589554178
0.111388624681
0.108387987009
-0.0367014151376
-0.000729968472429
6.11994666353e-05
-0.00143195835338
-0.0215178710448
-0.321341231582
-0.300103663996
-0.0747204240207
-0.0163390147864
-0.00761833327594
-6.44368399835e-05
-0.00180035187249
-0.00803238295398
-0.136756914277
-1.2527619473
-0.30046290785
-0.0350580137859
-0.00827347731708
-0.00115746587954
-0.000931621533703
-0.00617735605762
-0.0291663079415
-0.282568633142
-1.23809591205
-0.139256508683
-0.0231233705943
-0.00100451411704
-0.000334357380458
0.000498520937266
-0.0140403218773
-0.0717998369783
-0.32726312316
-0.368967293705
-0.0528656603924
-0.00338459379289
-0.000105154393311
0.000905503091961
0.00151060043379
0.00955664075313
0.0343498213074
-0.0235567111856
0.00406187532671
-0.00566901054039
-0.00023288811278
0.0016314695429
0.0158746912474
0.012989695206
0.0685905510613
0.0141422409501
0.00391318783872
-0.000755929530072
-0.00614293019498
0.00107075521178
0.0163322641176
0.0622235020838
0.015791535236
0.015955602246
0.00193046970306
8.62812077175e-05
-0.00454803545008
-0.0436267460657
-0.0270257830515
0.0447463265979
-0.00235418361285
-0.00590974446624
-0.0737085947424
-0.125627920087
-0.130203938093
-0.159951746818
-0.153766534365
-0.0138602761094
-0.0287851015667
0.0
0.0
0.0
0.0
0.0
-0.0145526526472
-0.0400624847852
-1.61279086486e-05
0.0
0.0
0.0
0.0
-0.0194787277839
-0.0349758022536
-3e-06
0.0
0.0
0.0
0.0
-0.0137660361454
-0.0306333785925
0.0
0.0
0.0
0.0
0.0
-0.00673068559536
-0.0175680076085
0.0
0.0
0.0
0.0
0.0
-0.0044514866135
-0.0146178565517
0.0
0.0
0.0
0.0
0.0
-0.00619663693333
-0.0166059956771
0.0
0.0
0.0
0.0
0.0
-0.0126671002062
-0.0165767201975
0.0
0.0
0.0
0.0
0.0
-0.00649988487297
-0.00119574492366
-0.00179950908221
0.000926767814671
-0.000238409604964
-0.00294209746382
-0.00376754869674
0.00265324254774
0.00218787009686
0.0322482381611
0.049458110464
0.00419486492724
-0.00546284959294
0.000765818064068
-0.00305364021824
0.0211723594931
0.0331709662057
0.00533207033918
-0.00678442071067
-0.00186525559551
-0.0020420379077
-0.000285085185562
0.000784026165278
-0.00312171811684
-0.00584250327099
-0.00174023731177
-0.0005789769033
0.00169778309878
-0.00583344429582
-0.00351625402513
-0.00276940667937
-0.00062705534493
-0.0007495131992
0.00381192431917
-0.00323049842355
-0.000632108258088
-0.00239961678339
-0.000548182329697
-0.000419577916138
0.00214528726331
-0.00304196253928
-0.00115850172124
-0.0064122530094
-0.00116675338181
-0.00255301871724
0.00297911487696
-0.00587619258703
-0.00336873309035
91.4279479545
0.0
-0.0436483576802
-0.0554282680409
-0.0126775157804
-54.4960697094
-53.8384465952
-0.0408376787908
-0.0440325224014
-0.000223473136133
-0.134542398697
1.57254141259
-1.71128924865
d
-0.946547543383
-1.54776273598
-0.891926044199
-0.102344322635
0.198165185975
0.147690685629
-0.00176641531992
-0.242350854551
0.00331044629626
-0.000148765228387
-0.00201675960227
-0.0215579114167
-0.348075862711
-0.466152642792
-0.107545611006
-0.00436043692301
0.00403475003976
0.00229294774273
-0.00174762290572
-0.00532894878953
-0.104373264212
-1.13968925279
-0.291030528026
-0.0119208170396
0.00125037494459
0.0041212692714
-0.00126192157484
-0.00479111791681
-0.0104158920445
-0.0512081904104
-0.744560759454
-0.0850598070141
-0.00441060129491
0.00188420028877
0.00042932240921
-0.00112115221869
0.00834114377389
0.0837704340595
0.019695018877
-0.210932688529
-0.0302388622729
0.000656690247457
0.000345056300061
0.00111219080348
0.00308452213134
0.10917289701
0.125622881766
-0.01159019001
-0.00153738616154
-0.0069866333823
0.000201338369487
-0.00321820875057
-0.01045329199
0.0171120634024
0.130439713683
0.0221330904586
0.00230835124739
-0.00175813469436
-0.0136075760082
-0.00809784994615
-0.0245669508184
-0.0446846866241
0.0536330325351
0.0350073989888
0.00219879412781
-0.000663451558984
-0.00649135407403
-0.0673402020366
-0.0900337304428
-0.108359315339
0.0196857526715
0.00865265210174
-0.032481029168
-0.0204723069057
-0.114590915143
-0.0748660972688
-0.108406745045
-0.000732574309506
-0.036272920328
0.0
0.0
0.0
0.0
0.0
0.0104639405541
-0.028791011821
-3.03349330287e-05
0.0
0.0
0.0
0.0
-0.0180114558052
-0.0186635307307
-4.67403172943e-06
0.0
0.0
0.0
0.0
-0.0110625599515
-0.00406707718643
0.0
0.0
0.0
0.0
0.0
-0.00883221224465
-0.00345811169601
0.0
0.0
0.0
0.0
0.0
-0.00620929832129
-0.00697173419359
0.0
0.0
0.0
0.0
0.0
0.00129304627203
-0.0155891460015
0.0
0.0
0.0
0.0
0.0
-0.00253744312871
-0.0265900836863
0.0
0.0
0.0
0.0
0.0
-0.000815606778436
0.00168051152972
0.00216164105148
0.0234611244028
0.0288535456873
0.0085720929123
-0.00171142770782
0.000299728996853
-0.000565314668219
0.00655306140695
0.015060036151
0.00115944296406
-0.00501566705272
-0.00123923723481
-0.00218575883473
-0.00555280174412
0.00392215251576
-0.00267676656674
-0.00497697441429
-0.00198473378437
-0.00234978091529
-0.0048501363059
-0.00512287303562
-0.00333764183412
-0.00397703947771
-0.00116920142805
-0.000851172642075
-0.00280689631931
-0.00433072752927
-0.00253061729694
-0.00119656029529
-0.000367259948107
-0.000530743808048
0.00786066867362
-0.00206766202287
-0.000526744763977
-0.00104614246811
-9.40355934484e-05
0.000309536780609
0.00458267202711
-0.000156292897669
-4.76494496363e-05
-0.00206295561492
0.000675422998821
-0.00030383168408
0.0138485497607
0.00961074205387
0.00114963294935
46.7335574118
0.0
-0.0255236504337
-0.0296241493332
-0.00472983633713
-23.0597531278
-27.7965694383
-0.0624333001235
-0.0147648520733
0.000159164301749
-0.0809004861634
0.893369076116
-1.13224209767
0
-0.895525182367
-1.72505026852
-1.7123819438
-0.938797843208
-0.137276109539
0.0345034063724
0.0411768192525
-0.124044817761
-0.00161502345605
0.000156444183457
-0.000835843641947
-0.0216176970256
-0.401167481386
-0.392361464959
-0.0765365224706
-0.00154759361111
-0.00292482694171
0.000614141428729
-0.000179029029072
-0.0035845650284
-0.12049589332
-1.29237052503
-0.29209653497
-0.014013035623
-0.00446987105461
-0.000358176918702
0.000728620603258
-0.00238865694538
-0.0151053416231
-0.255850885896
-1.30836952635
-0.126568105624
-0.0224103904549
-0.000939049524835
0.0014655836133
-0.00092277541351
-0.00523258514747
-0.0361591599821
-0.443600796109
-0.430998670189
-0.0796068335645
-0.00423376863576
0.000304127913822
0.000301199260916
0.00123050054038
0.0545035533521
-0.0286761500944
-0.0810987383114
-0.0121058264163
-0.0161414781799
-0.00133898632448
-0.00103480607844
0.00827119037701
0.0286908326326
0.0373631750031
-0.00920069464123
-0.00092903801359
-0.00146084913289
-0.0148065072217
-0.0117440249939
-0.00641173807703
0.0442816771082
0.0232349023992
0.00901239718431
0.000205595270789
-0.000161672562086
-0.00496229194866
-0.0674716376077
-0.0782867901663
0.00233953304725
0.0240065087872
0.000285937418947
-0.0509809394047
-0.197555344994
-0.197430779511
-0.260954977957
-0.258971996631
-0.03772957804
-0.0311663788789
0.0
0.0
0.0
0.0
0.0
-0.0305483888928
-0.0353138729504
-1.77072539079e-05
0.0
0.0
0.0
0.0
-0.0303132681818
-0.0347275880297
-5.57187154005e-05
0.0
0.0
0.0
0.0
-0.0380085024996
-0.0330165346254
0.0
0.0
0.0
0.0
0.0
-0.03314040015
-0.023462549152
0.0
0.0
0.0
0.0
0.0
-0.0193956075785
-0.0164685802476
0.0
0.0
0.0
0.0
0.0
-0.0180013581082
-0.0178731910518
0.0
0.0
0.0
0.0
0.0
-0.0334391146684
-0.0238371417479
0.0
0.0
0.0
0.0
0.0
-0.00736303692788
-0.00205819960811
-0.0032005515448
-0.00719063939371
-0.00627094427215
-0.00427344465333
-0.00767141477833
-0.00191573115401
-0.0029350692362
-0.00982805982717
-0.0050570575613
-0.00376735483814
-0.0071817017438
-0.00234687543642
-0.0039445595957
-0.0090855799326
-0.00638291958222
-0.00391380217231
-0.00742416698409
-0.00201088940859
-0.00300819833818
-0.00825285412401
-0.00719034253
-0.00409749059999
-0.00621699549831
-0.0020036333818
-0.00227135498896
-0.006694858445
-0.00717249335392
-0.00434879262913
-0.00272667466496
-0.000798416936503
-0.00138189527091
-0.00324099813073
-0.0033016101727
-0.00143511059645
-0.00276493861289
-0.000765838181554
-0.00110017244212
-0.00265638056352
-0.0031216995992
-0.00127766660038
-0.0057468721606
-0.00149606636951
-0.00275634352725
-0.00796010571305
-0.00713910767886
-0.00390262224246
209.88710538
0.0
-0.0731928808275
-0.0712663620381
-0.0178966163094
-160.353382243
-80.1753831026
-0.0559383373733
-0.059443678763
9.67673164409e-05
-0.238744533375
3.04760200656
-2.75953703695
